## MART
## No. of trees = 1000
## No. of leaves = 10
## No. of threshold candidates = 256
## Learning rate = 0.1
## Stop early = 100

<ensemble>
	<tree id="1" weight="0.1">
		<split>
			<feature> 2 </feature>
			<threshold> 0.013426863 </threshold>
			<split pos="left">
				<feature> 17 </feature>
				<threshold> -0.3087112 </threshold>
				<split pos="left">
					<feature> 1 </feature>
					<threshold> -0.35120326 </threshold>
					<split pos="left">
						<feature> 9 </feature>
						<threshold> 0.2674483 </threshold>
						<split pos="left">
							<feature> 17 </feature>
							<threshold> -0.37372065 </threshold>
							<split pos="left">
								<feature> 9 </feature>
								<threshold> -1.7046484 </threshold>
								<split pos="left">
									<output> 2.9252851009368896 </output>
								</split>
								<split pos="right">
									<feature> 18 </feature>
									<threshold> -0.2622013 </threshold>
									<split pos="left">
										<output> 3.086332321166992 </output>
									</split>
									<split pos="right">
										<output> 3.2917497158050537 </output>
									</split>
								</split>
							</split>
							<split pos="right">
								<output> 3.5036046504974365 </output>
							</split>
						</split>
						<split pos="right">
							<feature> 17 </feature>
							<threshold> -0.37372065 </threshold>
							<split pos="left">
								<output> 2.7455127239227295 </output>
							</split>
							<split pos="right">
								<output> 3.1448171138763428 </output>
							</split>
						</split>
					</split>
					<split pos="right">
						<output> 1.900408148765564 </output>
					</split>
				</split>
				<split pos="right">
					<feature> 18 </feature>
					<threshold> -0.16891243 </threshold>
					<split pos="left">
						<output> 6.638686180114746 </output>
					</split>
					<split pos="right">
						<output> 3.8081586360931396 </output>
					</split>
				</split>
			</split>
			<split pos="right">
				<output> 7.692263126373291 </output>
			</split>
		</split>
	</tree>
	<tree id="2" weight="0.1">
		<split>
			<feature> 2 </feature>
			<threshold> 0.013426863 </threshold>
			<split pos="left">
				<feature> 17 </feature>
				<threshold> -0.3087112 </threshold>
				<split pos="left">
					<feature> 1 </feature>
					<threshold> -0.35120326 </threshold>
					<split pos="left">
						<feature> 9 </feature>
						<threshold> 0.2674483 </threshold>
						<split pos="left">
							<feature> 17 </feature>
							<threshold> -0.37372065 </threshold>
							<split pos="left">
								<feature> 9 </feature>
								<threshold> -1.7046484 </threshold>
								<split pos="left">
									<output> 2.632613182067871 </output>
								</split>
								<split pos="right">
									<feature> 3 </feature>
									<threshold> 60.0 </threshold>
									<split pos="left">
										<output> 2.9428226947784424 </output>
									</split>
									<split pos="right">
										<output> 2.739919662475586 </output>
									</split>
								</split>
							</split>
							<split pos="right">
								<output> 3.153076410293579 </output>
							</split>
						</split>
						<split pos="right">
							<feature> 17 </feature>
							<threshold> -0.37372065 </threshold>
							<split pos="left">
								<feature> 6 </feature>
								<threshold> 0.583824 </threshold>
								<split pos="left">
									<output> 2.4542880058288574 </output>
								</split>
								<split pos="right">
									<output> 3.0251245498657227 </output>
								</split>
							</split>
							<split pos="right">
								<output> 2.8303630352020264 </output>
							</split>
						</split>
					</split>
					<split pos="right">
						<output> 1.7104297876358032 </output>
					</split>
				</split>
				<split pos="right">
					<output> 4.113997936248779 </output>
				</split>
			</split>
			<split pos="right">
				<output> 6.923112392425537 </output>
			</split>
		</split>
	</tree>
	<tree id="3" weight="0.1">
		<split>
			<feature> 2 </feature>
			<threshold> -0.116134696 </threshold>
			<split pos="left">
				<feature> 17 </feature>
				<threshold> -0.3087112 </threshold>
				<split pos="left">
					<feature> 1 </feature>
					<threshold> -0.35120326 </threshold>
					<split pos="left">
						<feature> 9 </feature>
						<threshold> 0.2674483 </threshold>
						<split pos="left">
							<feature> 17 </feature>
							<threshold> -0.37372065 </threshold>
							<split pos="left">
								<feature> 9 </feature>
								<threshold> -1.7046484 </threshold>
								<split pos="left">
									<output> 2.369560480117798 </output>
								</split>
								<split pos="right">
									<feature> 18 </feature>
									<threshold> -0.2622013 </threshold>
									<split pos="left">
										<output> 2.492278814315796 </output>
									</split>
									<split pos="right">
										<output> 2.672989845275879 </output>
									</split>
								</split>
							</split>
							<split pos="right">
								<output> 2.8373072147369385 </output>
							</split>
						</split>
						<split pos="right">
							<feature> 17 </feature>
							<threshold> -0.37372065 </threshold>
							<split pos="left">
								<feature> 3 </feature>
								<threshold> 60.0 </threshold>
								<split pos="left">
									<output> 2.293076992034912 </output>
								</split>
								<split pos="right">
									<output> 2.102612257003784 </output>
								</split>
							</split>
							<split pos="right">
								<output> 2.544902801513672 </output>
							</split>
						</split>
					</split>
					<split pos="right">
						<output> 1.5382506847381592 </output>
					</split>
				</split>
				<split pos="right">
					<output> 3.4696202278137207 </output>
				</split>
			</split>
			<split pos="right">
				<output> 5.933683395385742 </output>
			</split>
		</split>
	</tree>
	<tree id="4" weight="0.1">
		<split>
			<feature> 2 </feature>
			<threshold> 0.013426863 </threshold>
			<split pos="left">
				<feature> 17 </feature>
				<threshold> -0.3087112 </threshold>
				<split pos="left">
					<feature> 1 </feature>
					<threshold> -0.35120326 </threshold>
					<split pos="left">
						<feature> 9 </feature>
						<threshold> 0.2674483 </threshold>
						<split pos="left">
							<feature> 17 </feature>
							<threshold> -0.37372065 </threshold>
							<split pos="left">
								<feature> 18 </feature>
								<threshold> -0.2622013 </threshold>
								<split pos="left">
									<output> 2.1714985370635986 </output>
								</split>
								<split pos="right">
									<output> 2.352861166000366 </output>
								</split>
							</split>
							<split pos="right">
								<output> 2.5542571544647217 </output>
							</split>
						</split>
						<split pos="right">
							<feature> 17 </feature>
							<threshold> -0.37372065 </threshold>
							<split pos="left">
								<feature> 5 </feature>
								<threshold> -0.19965498 </threshold>
								<split pos="left">
									<output> 2.2445292472839355 </output>
								</split>
								<split pos="right">
									<output> 1.9697177410125732 </output>
								</split>
							</split>
							<split pos="right">
								<output> 2.2925658226013184 </output>
							</split>
						</split>
					</split>
					<split pos="right">
						<output> 1.3852224349975586 </output>
					</split>
				</split>
				<split pos="right">
					<feature> 18 </feature>
					<threshold> -0.16891243 </threshold>
					<split pos="left">
						<output> 5.125258445739746 </output>
					</split>
					<split pos="right">
						<output> 2.6115479469299316 </output>
					</split>
				</split>
			</split>
			<split pos="right">
				<output> 5.637558937072754 </output>
			</split>
		</split>
	</tree>
	<tree id="5" weight="0.1">
		<split>
			<feature> 2 </feature>
			<threshold> 0.013426863 </threshold>
			<split pos="left">
				<feature> 17 </feature>
				<threshold> -0.3087112 </threshold>
				<split pos="left">
					<feature> 1 </feature>
					<threshold> -0.35120326 </threshold>
					<split pos="left">
						<feature> 9 </feature>
						<threshold> 0.2674483 </threshold>
						<split pos="left">
							<feature> 17 </feature>
							<threshold> -0.37372065 </threshold>
							<split pos="left">
								<feature> 9 </feature>
								<threshold> -1.7046484 </threshold>
								<split pos="left">
									<output> 1.906484842300415 </output>
								</split>
								<split pos="right">
									<feature> 3 </feature>
									<threshold> 60.0 </threshold>
									<split pos="left">
										<output> 2.1618525981903076 </output>
									</split>
									<split pos="right">
										<output> 1.9854729175567627 </output>
									</split>
								</split>
							</split>
							<split pos="right">
								<output> 2.298731565475464 </output>
							</split>
						</split>
						<split pos="right">
							<feature> 17 </feature>
							<threshold> -0.37372065 </threshold>
							<split pos="left">
								<feature> 6 </feature>
								<threshold> 0.583824 </threshold>
								<split pos="left">
									<output> 1.7871170043945312 </output>
								</split>
								<split pos="right">
									<output> 2.2832703590393066 </output>
								</split>
							</split>
							<split pos="right">
								<output> 2.063416004180908 </output>
							</split>
						</split>
					</split>
					<split pos="right">
						<output> 1.2467987537384033 </output>
					</split>
				</split>
				<split pos="right">
					<output> 2.960258960723877 </output>
				</split>
			</split>
			<split pos="right">
				<output> 5.0739521980285645 </output>
			</split>
		</split>
	</tree>
	<tree id="6" weight="0.1">
		<split>
			<feature> 2 </feature>
			<threshold> 0.013426863 </threshold>
			<split pos="left">
				<feature> 17 </feature>
				<threshold> -0.3087112 </threshold>
				<split pos="left">
					<feature> 1 </feature>
					<threshold> -0.35120326 </threshold>
					<split pos="left">
						<feature> 9 </feature>
						<threshold> 0.2674483 </threshold>
						<split pos="left">
							<feature> 17 </feature>
							<threshold> -0.37372065 </threshold>
							<split pos="left">
								<feature> 9 </feature>
								<threshold> -1.7046484 </threshold>
								<split pos="left">
									<output> 1.7157304286956787 </output>
								</split>
								<split pos="right">
									<feature> 14 </feature>
									<threshold> 1.8806196 </threshold>
									<split pos="left">
										<output> 1.8790161609649658 </output>
									</split>
									<split pos="right">
										<output> 2.6039295196533203 </output>
									</split>
								</split>
							</split>
							<split pos="right">
								<output> 2.068897247314453 </output>
							</split>
						</split>
						<split pos="right">
							<feature> 17 </feature>
							<threshold> -0.37372065 </threshold>
							<split pos="left">
								<feature> 3 </feature>
								<threshold> 60.0 </threshold>
								<split pos="left">
									<output> 1.68129301071167 </output>
								</split>
								<split pos="right">
									<output> 1.5156465768814087 </output>
								</split>
							</split>
							<split pos="right">
								<output> 1.8570125102996826 </output>
							</split>
						</split>
					</split>
					<split pos="right">
						<output> 1.1220765113830566 </output>
					</split>
				</split>
				<split pos="right">
					<output> 2.664435863494873 </output>
				</split>
			</split>
			<split pos="right">
				<output> 4.566258907318115 </output>
			</split>
		</split>
	</tree>
	<tree id="7" weight="0.1">
		<split>
			<feature> 2 </feature>
			<threshold> 0.013426863 </threshold>
			<split pos="left">
				<feature> 17 </feature>
				<threshold> -0.3087112 </threshold>
				<split pos="left">
					<feature> 1 </feature>
					<threshold> -0.35120326 </threshold>
					<split pos="left">
						<feature> 6 </feature>
						<threshold> 0.583824 </threshold>
						<split pos="left">
							<feature> 5 </feature>
							<threshold> -0.17278326 </threshold>
							<split pos="left">
								<feature> 2 </feature>
								<threshold> -0.3752578 </threshold>
								<split pos="left">
									<feature> 18 </feature>
									<threshold> -0.2622013 </threshold>
									<split pos="left">
										<output> 1.5290566682815552 </output>
									</split>
									<split pos="right">
										<output> 1.671762228012085 </output>
									</split>
								</split>
								<split pos="right">
									<output> 1.75798761844635 </output>
								</split>
							</split>
							<split pos="right">
								<feature> 2 </feature>
								<threshold> -0.31047702 </threshold>
								<split pos="left">
									<feature> 17 </feature>
									<threshold> -0.37372065 </threshold>
									<split pos="left">
										<output> 1.4353104829788208 </output>
									</split>
									<split pos="right">
										<output> 1.6108863353729248 </output>
									</split>
								</split>
								<split pos="right">
									<output> 4.693630695343018 </output>
								</split>
							</split>
						</split>
						<split pos="right">
							<output> 1.808536171913147 </output>
						</split>
					</split>
					<split pos="right">
						<output> 1.0098332166671753 </output>
					</split>
				</split>
				<split pos="right">
					<output> 2.397874116897583 </output>
				</split>
			</split>
			<split pos="right">
				<output> 4.109938144683838 </output>
			</split>
		</split>
	</tree>
	<tree id="8" weight="0.1">
		<split>
			<feature> 2 </feature>
			<threshold> -0.116134696 </threshold>
			<split pos="left">
				<feature> 17 </feature>
				<threshold> -0.3087112 </threshold>
				<split pos="left">
					<feature> 1 </feature>
					<threshold> -0.35120326 </threshold>
					<split pos="left">
						<feature> 9 </feature>
						<threshold> 0.2674483 </threshold>
						<split pos="left">
							<feature> 17 </feature>
							<threshold> -0.37372065 </threshold>
							<split pos="left">
								<feature> 18 </feature>
								<threshold> -0.2622013 </threshold>
								<split pos="left">
									<output> 1.4078704118728638 </output>
								</split>
								<split pos="right">
									<feature> 3 </feature>
									<threshold> 81.0 </threshold>
									<split pos="left">
										<output> 1.6194056272506714 </output>
									</split>
									<split pos="right">
										<output> 1.3980779647827148 </output>
									</split>
								</split>
							</split>
							<split pos="right">
								<output> 1.6845585107803345 </output>
							</split>
						</split>
						<split pos="right">
							<feature> 17 </feature>
							<threshold> -0.37372065 </threshold>
							<split pos="left">
								<feature> 3 </feature>
								<threshold> 60.0 </threshold>
								<split pos="left">
									<output> 1.3648253679275513 </output>
								</split>
								<split pos="right">
									<output> 1.2192929983139038 </output>
								</split>
							</split>
							<split pos="right">
								<output> 1.4996789693832397 </output>
							</split>
						</split>
					</split>
					<split pos="right">
						<output> 0.9079975485801697 </output>
					</split>
				</split>
				<split pos="right">
					<output> 2.0006728172302246 </output>
				</split>
			</split>
			<split pos="right">
				<output> 3.524317741394043 </output>
			</split>
		</split>
	</tree>
	<tree id="9" weight="0.1">
		<split>
			<feature> 17 </feature>
			<threshold> 0.016336001 </threshold>
			<split pos="left">
				<feature> 2 </feature>
				<threshold> -0.18091547 </threshold>
				<split pos="left">
					<feature> 1 </feature>
					<threshold> -0.35120326 </threshold>
					<split pos="left">
						<feature> 17 </feature>
						<threshold> -0.37372065 </threshold>
						<split pos="left">
							<feature> 9 </feature>
							<threshold> 0.2674483 </threshold>
							<split pos="left">
								<feature> 3 </feature>
								<threshold> 60.0 </threshold>
								<split pos="left">
									<output> 1.3842754364013672 </output>
								</split>
								<split pos="right">
									<output> 1.2427341938018799 </output>
								</split>
							</split>
							<split pos="right">
								<output> 1.1806877851486206 </output>
							</split>
						</split>
						<split pos="right">
							<feature> 18 </feature>
							<threshold> -0.2622013 </threshold>
							<split pos="left">
								<output> 3.9904987812042236 </output>
							</split>
							<split pos="right">
								<feature> 3 </feature>
								<threshold> 96.0 </threshold>
								<split pos="left">
									<feature> 7 </feature>
									<threshold> 1.0728649 </threshold>
									<split pos="left">
										<output> 1.3180335760116577 </output>
									</split>
									<split pos="right">
										<output> 1.6251581907272339 </output>
									</split>
								</split>
								<split pos="right">
									<output> 4.0840888023376465 </output>
								</split>
							</split>
						</split>
					</split>
					<split pos="right">
						<output> 0.8179351091384888 </output>
					</split>
				</split>
				<split pos="right">
					<output> 2.2225449085235596 </output>
				</split>
			</split>
			<split pos="right">
				<output> 3.3609681129455566 </output>
			</split>
		</split>
	</tree>
	<tree id="10" weight="0.1">
		<split>
			<feature> 17 </feature>
			<threshold> 0.016336001 </threshold>
			<split pos="left">
				<feature> 2 </feature>
				<threshold> -0.18091547 </threshold>
				<split pos="left">
					<feature> 1 </feature>
					<threshold> -0.35120326 </threshold>
					<split pos="left">
						<feature> 2 </feature>
						<threshold> -0.31047702 </threshold>
						<split pos="left">
							<feature> 6 </feature>
							<threshold> 0.583824 </threshold>
							<split pos="left">
								<feature> 6 </feature>
								<threshold> -0.48159334 </threshold>
								<split pos="left">
									<feature> 9 </feature>
									<threshold> -1.7046484 </threshold>
									<split pos="left">
										<output> 1.1359659433364868 </output>
									</split>
									<split pos="right">
										<output> 1.2584627866744995 </output>
									</split>
								</split>
								<split pos="right">
									<feature> 9 </feature>
									<threshold> 0.44205603 </threshold>
									<split pos="left">
										<output> 1.020991563796997 </output>
									</split>
									<split pos="right">
										<output> 1.1199699640274048 </output>
									</split>
								</split>
							</split>
							<split pos="right">
								<feature> 17 </feature>
								<threshold> -0.37372065 </threshold>
								<split pos="left">
									<output> 1.2711623907089233 </output>
								</split>
								<split pos="right">
									<output> 1.5319232940673828 </output>
								</split>
							</split>
						</split>
						<split pos="right">
							<output> 1.5198830366134644 </output>
						</split>
					</split>
					<split pos="right">
						<output> 0.7361380457878113 </output>
					</split>
				</split>
				<split pos="right">
					<output> 2.0001494884490967 </output>
				</split>
			</split>
			<split pos="right">
				<output> 3.024841547012329 </output>
			</split>
		</split>
	</tree>
	<tree id="11" weight="0.1">
		<split>
			<feature> 17 </feature>
			<threshold> 0.016336001 </threshold>
			<split pos="left">
				<feature> 2 </feature>
				<threshold> -0.18091547 </threshold>
				<split pos="left">
					<feature> 1 </feature>
					<threshold> -0.35120326 </threshold>
					<split pos="left">
						<feature> 17 </feature>
						<threshold> -0.37372065 </threshold>
						<split pos="left">
							<feature> 3 </feature>
							<threshold> 60.0 </threshold>
							<split pos="left">
								<feature> 18 </feature>
								<threshold> -0.2622013 </threshold>
								<split pos="left">
									<output> 0.9832100868225098 </output>
								</split>
								<split pos="right">
									<output> 1.1463799476623535 </output>
								</split>
							</split>
							<split pos="right">
								<output> 0.9456186890602112 </output>
							</split>
						</split>
						<split pos="right">
							<feature> 18 </feature>
							<threshold> -0.2622013 </threshold>
							<split pos="left">
								<output> 3.4490373134613037 </output>
							</split>
							<split pos="right">
								<feature> 3 </feature>
								<threshold> 96.0 </threshold>
								<split pos="left">
									<feature> 3 </feature>
									<threshold> 45.0 </threshold>
									<split pos="left">
										<output> 1.0564390420913696 </output>
									</split>
									<split pos="right">
										<output> 1.337633490562439 </output>
									</split>
								</split>
								<split pos="right">
									<output> 3.53418231010437 </output>
								</split>
							</split>
						</split>
					</split>
					<split pos="right">
						<output> 0.6624893546104431 </output>
					</split>
				</split>
				<split pos="right">
					<output> 1.800229787826538 </output>
				</split>
			</split>
			<split pos="right">
				<output> 2.722381114959717 </output>
			</split>
		</split>
	</tree>
	<tree id="12" weight="0.1">
		<split>
			<feature> 17 </feature>
			<threshold> 0.08134544 </threshold>
			<split pos="left">
				<feature> 2 </feature>
				<threshold> -0.18091547 </threshold>
				<split pos="left">
					<feature> 1 </feature>
					<threshold> -0.35120326 </threshold>
					<split pos="left">
						<feature> 17 </feature>
						<threshold> -0.37372065 </threshold>
						<split pos="left">
							<feature> 9 </feature>
							<threshold> 0.2674483 </threshold>
							<split pos="left">
								<feature> 9 </feature>
								<threshold> -1.7046484 </threshold>
								<split pos="left">
									<output> 0.88646000623703 </output>
								</split>
								<split pos="right">
									<output> 1.017750859260559 </output>
								</split>
							</split>
							<split pos="right">
								<output> 0.8518869876861572 </output>
							</split>
						</split>
						<split pos="right">
							<feature> 18 </feature>
							<threshold> -0.2622013 </threshold>
							<split pos="left">
								<output> 3.104154109954834 </output>
							</split>
							<split pos="right">
								<feature> 3 </feature>
								<threshold> 96.0 </threshold>
								<split pos="left">
									<feature> 18 </feature>
									<threshold> -0.07562354 </threshold>
									<split pos="left">
										<output> 0.9890974164009094 </output>
									</split>
									<split pos="right">
										<output> 3.572499990463257 </output>
									</split>
								</split>
								<split pos="right">
									<output> 3.1807634830474854 </output>
								</split>
							</split>
						</split>
					</split>
					<split pos="right">
						<output> 0.5962873697280884 </output>
					</split>
				</split>
				<split pos="right">
					<output> 1.631859302520752 </output>
				</split>
			</split>
			<split pos="right">
				<output> 2.481232166290283 </output>
			</split>
		</split>
	</tree>
	<tree id="13" weight="0.1">
		<split>
			<feature> 17 </feature>
			<threshold> 0.14635488 </threshold>
			<split pos="left">
				<feature> 2 </feature>
				<threshold> -0.18091547 </threshold>
				<split pos="left">
					<feature> 1 </feature>
					<threshold> -0.35120326 </threshold>
					<split pos="left">
						<feature> 17 </feature>
						<threshold> -0.37372065 </threshold>
						<split pos="left">
							<feature> 3 </feature>
							<threshold> 60.0 </threshold>
							<split pos="left">
								<feature> 3 </feature>
								<threshold> 54.0 </threshold>
								<split pos="left">
									<feature> 5 </feature>
									<threshold> 0.872964 </threshold>
									<split pos="left">
										<output> 0.8096264004707336 </output>
									</split>
									<split pos="right">
										<output> 0.9636123180389404 </output>
									</split>
								</split>
								<split pos="right">
									<output> 1.0327078104019165 </output>
								</split>
							</split>
							<split pos="right">
								<output> 0.7586274743080139 </output>
							</split>
						</split>
						<split pos="right">
							<feature> 18 </feature>
							<threshold> -0.2622013 </threshold>
							<split pos="left">
								<output> 2.7937307357788086 </output>
							</split>
							<split pos="right">
								<feature> 3 </feature>
								<threshold> 96.0 </threshold>
								<split pos="left">
									<output> 0.8938645720481873 </output>
								</split>
								<split pos="right">
									<output> 2.8626835346221924 </output>
								</split>
							</split>
						</split>
					</split>
					<split pos="right">
						<output> 0.536637008190155 </output>
					</split>
				</split>
				<split pos="right">
					<output> 1.476475477218628 </output>
				</split>
			</split>
			<split pos="right">
				<output> 2.2624552249908447 </output>
			</split>
		</split>
	</tree>
	<tree id="14" weight="0.1">
		<split>
			<feature> 17 </feature>
			<threshold> 0.27637377 </threshold>
			<split pos="left">
				<feature> 2 </feature>
				<threshold> -0.18091547 </threshold>
				<split pos="left">
					<feature> 1 </feature>
					<threshold> -0.35120326 </threshold>
					<split pos="left">
						<feature> 2 </feature>
						<threshold> -0.31047702 </threshold>
						<split pos="left">
							<feature> 6 </feature>
							<threshold> 0.583824 </threshold>
							<split pos="left">
								<feature> 6 </feature>
								<threshold> -0.48159334 </threshold>
								<split pos="left">
									<feature> 9 </feature>
									<threshold> -1.7046484 </threshold>
									<split pos="left">
										<output> 0.7382279634475708 </output>
									</split>
									<split pos="right">
										<output> 0.8398993611335754 </output>
									</split>
								</split>
								<split pos="right">
									<feature> 14 </feature>
									<threshold> -0.2071497 </threshold>
									<split pos="left">
										<output> 0.7242377400398254 </output>
									</split>
									<split pos="right">
										<output> 0.6309382319450378 </output>
									</split>
								</split>
							</split>
							<split pos="right">
								<feature> 11 </feature>
								<threshold> -0.425876 </threshold>
								<split pos="left">
									<output> 0.8849323987960815 </output>
								</split>
								<split pos="right">
									<output> 1.4956544637680054 </output>
								</split>
							</split>
						</split>
						<split pos="right">
							<output> 1.0036237239837646 </output>
						</split>
					</split>
					<split pos="right">
						<output> 0.48299989104270935 </output>
					</split>
				</split>
				<split pos="right">
					<output> 1.3413034677505493 </output>
				</split>
			</split>
			<split pos="right">
				<output> 2.089916229248047 </output>
			</split>
		</split>
	</tree>
	<tree id="15" weight="0.1">
		<split>
			<feature> 17 </feature>
			<threshold> 0.4714021 </threshold>
			<split pos="left">
				<feature> 2 </feature>
				<threshold> -0.18091547 </threshold>
				<split pos="left">
					<feature> 1 </feature>
					<threshold> -0.35120326 </threshold>
					<split pos="left">
						<feature> 17 </feature>
						<threshold> -0.37372065 </threshold>
						<split pos="left">
							<feature> 18 </feature>
							<threshold> -0.2622013 </threshold>
							<split pos="left">
								<output> 0.6224435567855835 </output>
							</split>
							<split pos="right">
								<feature> 2 </feature>
								<threshold> -0.44003856 </threshold>
								<split pos="left">
									<output> 0.962895929813385 </output>
								</split>
								<split pos="right">
									<output> 0.6906831860542297 </output>
								</split>
							</split>
						</split>
						<split pos="right">
							<feature> 18 </feature>
							<threshold> -0.2622013 </threshold>
							<split pos="left">
								<output> 2.4218881130218506 </output>
							</split>
							<split pos="right">
								<feature> 3 </feature>
								<threshold> 96.0 </threshold>
								<split pos="left">
									<feature> 3 </feature>
									<threshold> 45.0 </threshold>
									<split pos="left">
										<output> 0.6762984991073608 </output>
									</split>
									<split pos="right">
										<output> 0.9344967603683472 </output>
									</split>
								</split>
								<split pos="right">
									<output> 2.484508991241455 </output>
								</split>
							</split>
						</split>
					</split>
					<split pos="right">
						<output> 0.4346823990345001 </output>
					</split>
				</split>
				<split pos="right">
					<output> 1.219868779182434 </output>
				</split>
			</split>
			<split pos="right">
				<output> 1.9469060897827148 </output>
			</split>
		</split>
	</tree>
	<tree id="16" weight="0.1">
		<split>
			<feature> 17 </feature>
			<threshold> 0.66643035 </threshold>
			<split pos="left">
				<feature> 2 </feature>
				<threshold> -0.18091547 </threshold>
				<split pos="left">
					<feature> 1 </feature>
					<threshold> -0.35120326 </threshold>
					<split pos="left">
						<feature> 17 </feature>
						<threshold> -0.37372065 </threshold>
						<split pos="left">
							<feature> 3 </feature>
							<threshold> 60.0 </threshold>
							<split pos="left">
								<feature> 3 </feature>
								<threshold> 54.0 </threshold>
								<split pos="left">
									<feature> 9 </feature>
									<threshold> 0.2674483 </threshold>
									<split pos="left">
										<output> 0.6529794931411743 </output>
									</split>
									<split pos="right">
										<output> 0.5497982501983643 </output>
									</split>
								</split>
								<split pos="right">
									<output> 0.7738995552062988 </output>
								</split>
							</split>
							<split pos="right">
								<output> 0.5409000515937805 </output>
							</split>
						</split>
						<split pos="right">
							<feature> 18 </feature>
							<threshold> -0.2622013 </threshold>
							<split pos="left">
								<output> 2.1796998977661133 </output>
							</split>
							<split pos="right">
								<feature> 3 </feature>
								<threshold> 96.0 </threshold>
								<split pos="left">
									<output> 0.6475618481636047 </output>
								</split>
								<split pos="right">
									<output> 2.23606014251709 </output>
								</split>
							</split>
						</split>
					</split>
					<split pos="right">
						<output> 0.3912228047847748 </output>
					</split>
				</split>
				<split pos="right">
					<output> 1.112330436706543 </output>
				</split>
			</split>
			<split pos="right">
				<output> 1.8140500783920288 </output>
			</split>
		</split>
	</tree>
	<tree id="17" weight="0.1">
		<split>
			<feature> 17 </feature>
			<threshold> 0.66643035 </threshold>
			<split pos="left">
				<feature> 2 </feature>
				<threshold> -0.18091547 </threshold>
				<split pos="left">
					<feature> 18 </feature>
					<threshold> -0.07562354 </threshold>
					<split pos="left">
						<feature> 1 </feature>
						<threshold> -0.35120326 </threshold>
						<split pos="left">
							<feature> 17 </feature>
							<threshold> -0.37372065 </threshold>
							<split pos="left">
								<feature> 9 </feature>
								<threshold> 0.2674483 </threshold>
								<split pos="left">
									<feature> 14 </feature>
									<threshold> 1.8806196 </threshold>
									<split pos="left">
										<feature> 9 </feature>
										<threshold> -1.7046484 </threshold>
										<split pos="left">
											<output> 0.5124372839927673 </output>
										</split>
										<split pos="right">
											<output> 0.6068467497825623 </output>
										</split>
									</split>
									<split pos="right">
										<output> 1.153337836265564 </output>
									</split>
								</split>
								<split pos="right">
									<output> 0.49008896946907043 </output>
								</split>
							</split>
							<split pos="right">
								<feature> 18 </feature>
								<threshold> -0.2622013 </threshold>
								<split pos="left">
									<output> 1.9617339372634888 </output>
								</split>
								<split pos="right">
									<output> 0.5927613973617554 </output>
								</split>
							</split>
						</split>
						<split pos="right">
							<output> 0.3434150516986847 </output>
						</split>
					</split>
					<split pos="right">
						<output> 2.859588146209717 </output>
					</split>
				</split>
				<split pos="right">
					<output> 1.0010910034179688 </output>
				</split>
			</split>
			<split pos="right">
				<output> 1.6324821710586548 </output>
			</split>
		</split>
	</tree>
	<tree id="18" weight="0.1">
		<split>
			<feature> 17 </feature>
			<threshold> 0.016336001 </threshold>
			<split pos="left">
				<feature> 18 </feature>
				<threshold> 0.017665341 </threshold>
				<split pos="left">
					<feature> 18 </feature>
					<threshold> -0.07562354 </threshold>
					<split pos="left">
						<feature> 17 </feature>
						<threshold> -0.17869231 </threshold>
						<split pos="left">
							<feature> 1 </feature>
							<threshold> -0.35120326 </threshold>
							<split pos="left">
								<feature> 8 </feature>
								<threshold> -1.0606896 </threshold>
								<split pos="left">
									<output> 0.6289205551147461 </output>
								</split>
								<split pos="right">
									<feature> 5 </feature>
									<threshold> 0.90585613 </threshold>
									<split pos="left">
										<feature> 2 </feature>
										<threshold> -0.31047702 </threshold>
										<split pos="left">
											<feature> 8 </feature>
											<threshold> 0.2553711 </threshold>
											<split pos="left">
												<output> 0.4417683482170105 </output>
											</split>
											<split pos="right">
												<output> 0.5233487486839294 </output>
											</split>
										</split>
										<split pos="right">
											<output> 0.6487923860549927 </output>
										</split>
									</split>
									<split pos="right">
										<output> 0.13533863425254822 </output>
									</split>
								</split>
							</split>
							<split pos="right">
								<output> 0.3094201683998108 </output>
							</split>
						</split>
						<split pos="right">
							<output> 2.1928765773773193 </output>
						</split>
					</split>
					<split pos="right">
						<output> -0.007042557466775179 </output>
					</split>
				</split>
				<split pos="right">
					<output> 1.8067066669464111 </output>
				</split>
			</split>
			<split pos="right">
				<output> 1.3087855577468872 </output>
			</split>
		</split>
	</tree>
	<tree id="19" weight="0.1">
		<split>
			<feature> 17 </feature>
			<threshold> 0.8614586 </threshold>
			<split pos="left">
				<feature> 2 </feature>
				<threshold> -0.18091547 </threshold>
				<split pos="left">
					<feature> 17 </feature>
					<threshold> -0.37372065 </threshold>
					<split pos="left">
						<feature> 1 </feature>
						<threshold> -0.35120326 </threshold>
						<split pos="left">
							<feature> 3 </feature>
							<threshold> 60.0 </threshold>
							<split pos="left">
								<feature> 18 </feature>
								<threshold> -0.2622013 </threshold>
								<split pos="left">
									<output> 0.4042353630065918 </output>
								</split>
								<split pos="right">
									<output> 0.5232619047164917 </output>
								</split>
							</split>
							<split pos="right">
								<output> 0.3814204931259155 </output>
							</split>
						</split>
						<split pos="right">
							<output> 0.14981189370155334 </output>
						</split>
					</split>
					<split pos="right">
						<feature> 18 </feature>
						<threshold> -0.2622013 </threshold>
						<split pos="left">
							<output> 1.7543516159057617 </output>
						</split>
						<split pos="right">
							<feature> 3 </feature>
							<threshold> 96.0 </threshold>
							<split pos="left">
								<feature> 18 </feature>
								<threshold> -0.16891243 </threshold>
								<split pos="left">
									<output> 0.5424984097480774 </output>
								</split>
								<split pos="right">
									<output> 0.305926114320755 </output>
								</split>
							</split>
							<split pos="right">
								<output> 2.033876419067383 </output>
							</split>
						</split>
					</split>
				</split>
				<split pos="right">
					<output> 0.8048182129859924 </output>
				</split>
			</split>
			<split pos="right">
				<output> 1.388121247291565 </output>
			</split>
		</split>
	</tree>
	<tree id="20" weight="0.1">
		<split>
			<feature> 17 </feature>
			<threshold> 0.8614586 </threshold>
			<split pos="left">
				<feature> 2 </feature>
				<threshold> -0.18091547 </threshold>
				<split pos="left">
					<feature> 18 </feature>
					<threshold> -0.07562354 </threshold>
					<split pos="left">
						<feature> 17 </feature>
						<threshold> -0.37372065 </threshold>
						<split pos="left">
							<feature> 1 </feature>
							<threshold> -0.35120326 </threshold>
							<split pos="left">
								<feature> 3 </feature>
								<threshold> 60.0 </threshold>
								<split pos="left">
									<feature> 18 </feature>
									<threshold> -0.2622013 </threshold>
									<split pos="left">
										<output> 0.3638194799423218 </output>
									</split>
									<split pos="right">
										<output> 0.47067534923553467 </output>
									</split>
								</split>
								<split pos="right">
									<output> 0.3425958454608917 </output>
								</split>
							</split>
							<split pos="right">
								<output> 0.1321592628955841 </output>
							</split>
						</split>
						<split pos="right">
							<feature> 18 </feature>
							<threshold> -0.2622013 </threshold>
							<split pos="left">
								<output> 1.5789188146591187 </output>
							</split>
							<split pos="right">
								<feature> 3 </feature>
								<threshold> 96.0 </threshold>
								<split pos="left">
									<output> 0.41642069816589355 </output>
								</split>
								<split pos="right">
									<output> 1.822568416595459 </output>
								</split>
							</split>
						</split>
					</split>
					<split pos="right">
						<output> 2.3506109714508057 </output>
					</split>
				</split>
				<split pos="right">
					<output> 0.7243024110794067 </output>
				</split>
			</split>
			<split pos="right">
				<output> 1.2491599321365356 </output>
			</split>
		</split>
	</tree>
	<tree id="21" weight="0.1">
		<split>
			<feature> 17 </feature>
			<threshold> 1.1865058 </threshold>
			<split pos="left">
				<feature> 2 </feature>
				<threshold> -0.18091547 </threshold>
				<split pos="left">
					<feature> 18 </feature>
					<threshold> -0.07562354 </threshold>
					<split pos="left">
						<feature> 17 </feature>
						<threshold> -0.37372065 </threshold>
						<split pos="left">
							<feature> 1 </feature>
							<threshold> -0.35120326 </threshold>
							<split pos="left">
								<feature> 8 </feature>
								<threshold> -1.9412407 </threshold>
								<split pos="left">
									<output> 0.8757192492485046 </output>
								</split>
								<split pos="right">
									<feature> 9 </feature>
									<threshold> 0.2674483 </threshold>
									<split pos="left">
										<feature> 9 </feature>
										<threshold> -1.7046484 </threshold>
										<split pos="left">
											<output> 0.3256489634513855 </output>
										</split>
										<split pos="right">
											<output> 0.4059728980064392 </output>
										</split>
									</split>
									<split pos="right">
										<output> 0.3122889995574951 </output>
									</split>
								</split>
							</split>
							<split pos="right">
								<output> 0.11894495785236359 </output>
							</split>
						</split>
						<split pos="right">
							<feature> 18 </feature>
							<threshold> -0.2622013 </threshold>
							<split pos="left">
								<output> 1.4210282564163208 </output>
							</split>
							<split pos="right">
								<output> 0.38718318939208984 </output>
							</split>
						</split>
					</split>
					<split pos="right">
						<output> 2.1155498027801514 </output>
					</split>
				</split>
				<split pos="right">
					<output> 0.6664749383926392 </output>
				</split>
			</split>
			<split pos="right">
				<output> 1.2012847661972046 </output>
			</split>
		</split>
	</tree>
	<tree id="22" weight="0.1">
		<split>
			<feature> 18 </feature>
			<threshold> 0.017665341 </threshold>
			<split pos="left">
				<feature> 18 </feature>
				<threshold> -0.07562354 </threshold>
				<split pos="left">
					<feature> 2 </feature>
					<threshold> -0.18091547 </threshold>
					<split pos="left">
						<feature> 17 </feature>
						<threshold> -0.37372065 </threshold>
						<split pos="left">
							<feature> 1 </feature>
							<threshold> -0.35120326 </threshold>
							<split pos="left">
								<feature> 3 </feature>
								<threshold> 60.0 </threshold>
								<split pos="left">
									<feature> 3 </feature>
									<threshold> 54.0 </threshold>
									<split pos="left">
										<output> 0.32183974981307983 </output>
									</split>
									<split pos="right">
										<output> 0.4501228332519531 </output>
									</split>
								</split>
								<split pos="right">
									<output> 0.2731155753135681 </output>
								</split>
							</split>
							<split pos="right">
								<output> 0.10704521834850311 </output>
							</split>
						</split>
						<split pos="right">
							<feature> 18 </feature>
							<threshold> -0.2622013 </threshold>
							<split pos="left">
								<output> 1.2789249420166016 </output>
							</split>
							<split pos="right">
								<feature> 3 </feature>
								<threshold> 96.0 </threshold>
								<split pos="left">
									<output> 0.33606410026550293 </output>
								</split>
								<split pos="right">
									<output> 1.6015945672988892 </output>
								</split>
							</split>
						</split>
					</split>
					<split pos="right">
						<output> 0.8741098642349243 </output>
					</split>
				</split>
				<split pos="right">
					<output> -0.16759809851646423 </output>
				</split>
			</split>
			<split pos="right">
				<output> 1.0716842412948608 </output>
			</split>
		</split>
	</tree>
	<tree id="23" weight="0.1">
		<split>
			<feature> 17 </feature>
			<threshold> 1.3815342 </threshold>
			<split pos="left">
				<feature> 3 </feature>
				<threshold> 0.0 </threshold>
				<split pos="left">
					<output> -0.3300871253013611 </output>
				</split>
				<split pos="right">
					<feature> 2 </feature>
					<threshold> -0.18091547 </threshold>
					<split pos="left">
						<feature> 18 </feature>
						<threshold> -0.07562354 </threshold>
						<split pos="left">
							<feature> 11 </feature>
							<threshold> -0.5243191 </threshold>
							<split pos="left">
								<output> 0.35996100306510925 </output>
							</split>
							<split pos="right">
								<feature> 18 </feature>
								<threshold> -0.16891243 </threshold>
								<split pos="left">
									<feature> 2 </feature>
									<threshold> -0.31047702 </threshold>
									<split pos="left">
										<feature> 6 </feature>
										<threshold> 0.583824 </threshold>
										<split pos="left">
											<feature> 8 </feature>
											<threshold> 0.8758234 </threshold>
											<split pos="left">
												<output> 0.23887966573238373 </output>
											</split>
											<split pos="right">
												<output> 0.3102618157863617 </output>
											</split>
										</split>
										<split pos="right">
											<output> 0.9310843348503113 </output>
										</split>
									</split>
									<split pos="right">
										<output> 1.4174959659576416 </output>
									</split>
								</split>
								<split pos="right">
									<output> 0.096295565366745 </output>
								</split>
							</split>
						</split>
						<split pos="right">
							<output> 1.8095368146896362 </output>
						</split>
					</split>
					<split pos="right">
						<output> 0.6586470603942871 </output>
					</split>
				</split>
			</split>
			<split pos="right">
				<output> 1.0219972133636475 </output>
			</split>
		</split>
	</tree>
	<tree id="24" weight="0.1">
		<split>
			<feature> 18 </feature>
			<threshold> 0.017665341 </threshold>
			<split pos="left">
				<feature> 18 </feature>
				<threshold> -0.07562354 </threshold>
				<split pos="left">
					<feature> 2 </feature>
					<threshold> -0.18091547 </threshold>
					<split pos="left">
						<feature> 17 </feature>
						<threshold> -0.37372065 </threshold>
						<split pos="left">
							<feature> 1 </feature>
							<threshold> -0.35120326 </threshold>
							<split pos="left">
								<feature> 5 </feature>
								<threshold> 1.84132 </threshold>
								<split pos="left">
									<feature> 3 </feature>
									<threshold> 60.0 </threshold>
									<split pos="left">
										<feature> 18 </feature>
										<threshold> -0.2622013 </threshold>
										<split pos="left">
											<output> 0.23127703368663788 </output>
										</split>
										<split pos="right">
											<output> 0.31479471921920776 </output>
										</split>
									</split>
									<split pos="right">
										<output> 0.21269549429416656 </output>
									</split>
								</split>
								<split pos="right">
									<output> 0.5122206211090088 </output>
								</split>
							</split>
							<split pos="right">
								<output> 0.06732048839330673 </output>
							</split>
						</split>
						<split pos="right">
							<feature> 18 </feature>
							<threshold> -0.2622013 </threshold>
							<split pos="left">
								<output> 1.0696932077407837 </output>
							</split>
							<split pos="right">
								<output> 0.28619346022605896 </output>
							</split>
						</split>
					</split>
					<split pos="right">
						<output> 0.7147524356842041 </output>
					</split>
				</split>
				<split pos="right">
					<output> -0.1698783040046692 </output>
				</split>
			</split>
			<split pos="right">
				<output> 0.8745478987693787 </output>
			</split>
		</split>
	</tree>
	<tree id="25" weight="0.1">
		<split>
			<feature> 17 </feature>
			<threshold> 1.6415721 </threshold>
			<split pos="left">
				<feature> 1 </feature>
				<threshold> -0.35120326 </threshold>
				<split pos="left">
					<feature> 2 </feature>
					<threshold> -0.18091547 </threshold>
					<split pos="left">
						<feature> 9 </feature>
						<threshold> 0.2674483 </threshold>
						<split pos="left">
							<feature> 5 </feature>
							<threshold> -0.41068122 </threshold>
							<split pos="left">
								<feature> 6 </feature>
								<threshold> -1.4367796 </threshold>
								<split pos="left">
									<output> 0.06423845887184143 </output>
								</split>
								<split pos="right">
									<feature> 17 </feature>
									<threshold> -0.3087112 </threshold>
									<split pos="left">
										<feature> 14 </feature>
										<threshold> -1.2311022 </threshold>
										<split pos="left">
											<output> 0.17302177846431732 </output>
										</split>
										<split pos="right">
											<output> 0.2652672529220581 </output>
										</split>
									</split>
									<split pos="right">
										<output> 0.4911520481109619 </output>
									</split>
								</split>
							</split>
							<split pos="right">
								<output> 0.3438931703567505 </output>
							</split>
						</split>
						<split pos="right">
							<feature> 8 </feature>
							<threshold> -0.38729542 </threshold>
							<split pos="left">
								<output> 0.09686043858528137 </output>
							</split>
							<split pos="right">
								<output> 0.23628778755664825 </output>
							</split>
						</split>
					</split>
					<split pos="right">
						<output> 0.5827199220657349 </output>
					</split>
				</split>
				<split pos="right">
					<output> -0.00945238582789898 </output>
				</split>
			</split>
			<split pos="right">
				<output> 0.8870357275009155 </output>
			</split>
		</split>
	</tree>
	<tree id="26" weight="0.1">
		<split>
			<feature> 17 </feature>
			<threshold> 2.1616476 </threshold>
			<split pos="left">
				<feature> 1 </feature>
				<threshold> -0.35120326 </threshold>
				<split pos="left">
					<feature> 2 </feature>
					<threshold> -0.18091547 </threshold>
					<split pos="left">
						<feature> 9 </feature>
						<threshold> 0.2674483 </threshold>
						<split pos="left">
							<feature> 5 </feature>
							<threshold> -0.41068122 </threshold>
							<split pos="left">
								<feature> 8 </feature>
								<threshold> 0.39183754 </threshold>
								<split pos="left">
									<output> 0.09228178858757019 </output>
								</split>
								<split pos="right">
									<feature> 17 </feature>
									<threshold> -0.3087112 </threshold>
									<split pos="left">
										<output> 0.22564788162708282 </output>
									</split>
									<split pos="right">
										<output> 0.38964390754699707 </output>
									</split>
								</split>
							</split>
							<split pos="right">
								<output> 0.30949872732162476 </output>
							</split>
						</split>
						<split pos="right">
							<feature> 5 </feature>
							<threshold> 0.84396577 </threshold>
							<split pos="left">
								<feature> 2 </feature>
								<threshold> -0.31047702 </threshold>
								<split pos="left">
									<output> 0.18098080158233643 </output>
								</split>
								<split pos="right">
									<output> 0.45105063915252686 </output>
								</split>
							</split>
							<split pos="right">
								<output> 0.009264543652534485 </output>
							</split>
						</split>
					</split>
					<split pos="right">
						<output> 0.5372387766838074 </output>
					</split>
				</split>
				<split pos="right">
					<output> -0.015292913652956486 </output>
				</split>
			</split>
			<split pos="right">
				<output> 0.9009726047515869 </output>
			</split>
		</split>
	</tree>
	<tree id="27" weight="0.1">
		<split>
			<feature> 18 </feature>
			<threshold> 0.017665341 </threshold>
			<split pos="left">
				<feature> 18 </feature>
				<threshold> -0.07562354 </threshold>
				<split pos="left">
					<feature> 2 </feature>
					<threshold> -0.18091547 </threshold>
					<split pos="left">
						<feature> 18 </feature>
						<threshold> -0.16891243 </threshold>
						<split pos="left">
							<feature> 2 </feature>
							<threshold> -0.31047702 </threshold>
							<split pos="left">
								<feature> 17 </feature>
								<threshold> -0.37372065 </threshold>
								<split pos="left">
									<feature> 1 </feature>
									<threshold> -0.35120326 </threshold>
									<split pos="left">
										<feature> 8 </feature>
										<threshold> -1.9412407 </threshold>
										<split pos="left">
											<output> 0.5905781388282776 </output>
										</split>
										<split pos="right">
											<feature> 3 </feature>
											<threshold> 24.0 </threshold>
											<split pos="left">
												<output> 0.2724018096923828 </output>
											</split>
											<split pos="right">
												<output> 0.17092886567115784 </output>
											</split>
										</split>
									</split>
									<split pos="right">
										<output> 0.06027049943804741 </output>
									</split>
								</split>
								<split pos="right">
									<output> 0.2455260455608368 </output>
								</split>
							</split>
							<split pos="right">
								<output> 1.2371703386306763 </output>
							</split>
						</split>
						<split pos="right">
							<output> 0.09182753413915634 </output>
						</split>
					</split>
					<split pos="right">
						<output> 0.5395250916481018 </output>
					</split>
				</split>
				<split pos="right">
					<output> -0.2533881962299347 </output>
				</split>
			</split>
			<split pos="right">
				<output> 0.6497141122817993 </output>
			</split>
		</split>
	</tree>
	<tree id="28" weight="0.1">
		<split>
			<feature> 17 </feature>
			<threshold> 2.1616476 </threshold>
			<split pos="left">
				<feature> 1 </feature>
				<threshold> -0.35120326 </threshold>
				<split pos="left">
					<feature> 2 </feature>
					<threshold> -0.18091547 </threshold>
					<split pos="left">
						<feature> 18 </feature>
						<threshold> -0.07562354 </threshold>
						<split pos="left">
							<feature> 9 </feature>
							<threshold> 0.2674483 </threshold>
							<split pos="left">
								<feature> 2 </feature>
								<threshold> -0.44003856 </threshold>
								<split pos="left">
									<output> 0.15170834958553314 </output>
								</split>
								<split pos="right">
									<feature> 5 </feature>
									<threshold> 0.48812097 </threshold>
									<split pos="left">
										<output> 0.1928141862154007 </output>
									</split>
									<split pos="right">
										<output> 0.32136815786361694 </output>
									</split>
								</split>
							</split>
							<split pos="right">
								<feature> 18 </feature>
								<threshold> -0.16891243 </threshold>
								<split pos="left">
									<feature> 2 </feature>
									<threshold> -0.31047702 </threshold>
									<split pos="left">
										<output> 0.13900302350521088 </output>
									</split>
									<split pos="right">
										<output> 1.2513923645019531 </output>
									</split>
								</split>
								<split pos="right">
									<output> -0.0037049755919724703 </output>
								</split>
							</split>
						</split>
						<split pos="right">
							<output> 1.4497594833374023 </output>
						</split>
					</split>
					<split pos="right">
						<output> 0.4430960714817047 </output>
					</split>
				</split>
				<split pos="right">
					<output> -0.034765470772981644 </output>
				</split>
			</split>
			<split pos="right">
				<output> 0.7483286261558533 </output>
			</split>
		</split>
	</tree>
	<tree id="29" weight="0.1">
		<split>
			<feature> 17 </feature>
			<threshold> 2.1616476 </threshold>
			<split pos="left">
				<feature> 3 </feature>
				<threshold> 0.0 </threshold>
				<split pos="left">
					<output> -0.3932255208492279 </output>
				</split>
				<split pos="right">
					<feature> 2 </feature>
					<threshold> -0.18091547 </threshold>
					<split pos="left">
						<feature> 18 </feature>
						<threshold> -0.07562354 </threshold>
						<split pos="left">
							<feature> 18 </feature>
							<threshold> -0.16891243 </threshold>
							<split pos="left">
								<feature> 2 </feature>
								<threshold> -0.31047702 </threshold>
								<split pos="left">
									<feature> 17 </feature>
									<threshold> -0.37372065 </threshold>
									<split pos="left">
										<feature> 8 </feature>
										<threshold> -1.9412407 </threshold>
										<split pos="left">
											<output> 0.576949954032898 </output>
										</split>
										<split pos="right">
											<feature> 3 </feature>
											<threshold> 60.0 </threshold>
											<split pos="left">
												<output> 0.15906623005867004 </output>
											</split>
											<split pos="right">
												<output> 0.09713828563690186 </output>
											</split>
										</split>
									</split>
									<split pos="right">
										<output> 0.20367573201656342 </output>
									</split>
								</split>
								<split pos="right">
									<output> 1.0553227663040161 </output>
								</split>
							</split>
							<split pos="right">
								<output> 0.07157482951879501 </output>
							</split>
						</split>
						<split pos="right">
							<output> 1.3621355295181274 </output>
						</split>
					</split>
					<split pos="right">
						<output> 0.35334521532058716 </output>
					</split>
				</split>
			</split>
			<split pos="right">
				<output> 0.6734964847564697 </output>
			</split>
		</split>
	</tree>
	<tree id="30" weight="0.1">
		<split>
			<feature> 17 </feature>
			<threshold> 2.5517037 </threshold>
			<split pos="left">
				<feature> 1 </feature>
				<threshold> -0.35120326 </threshold>
				<split pos="left">
					<feature> 2 </feature>
					<threshold> -0.18091547 </threshold>
					<split pos="left">
						<feature> 9 </feature>
						<threshold> 0.2674483 </threshold>
						<split pos="left">
							<feature> 13 </feature>
							<threshold> 1.6475658 </threshold>
							<split pos="left">
								<feature> 2 </feature>
								<threshold> -0.44003856 </threshold>
								<split pos="left">
									<output> 0.11066976189613342 </output>
								</split>
								<split pos="right">
									<feature> 18 </feature>
									<threshold> -0.3554902 </threshold>
									<split pos="left">
										<output> 1.4254063367843628 </output>
									</split>
									<split pos="right">
										<feature> 8 </feature>
										<threshold> -0.9106689 </threshold>
										<split pos="left">
											<output> 0.26329612731933594 </output>
										</split>
										<split pos="right">
											<output> 0.15261417627334595 </output>
										</split>
									</split>
								</split>
							</split>
							<split pos="right">
								<output> 0.28496405482292175 </output>
							</split>
						</split>
						<split pos="right">
							<feature> 6 </feature>
							<threshold> -0.5521857 </threshold>
							<split pos="left">
								<output> 0.3828474283218384 </output>
							</split>
							<split pos="right">
								<output> 0.10535334050655365 </output>
							</split>
						</split>
					</split>
					<split pos="right">
						<output> 0.3774929940700531 </output>
					</split>
				</split>
				<split pos="right">
					<output> -0.05395934358239174 </output>
				</split>
			</split>
			<split pos="right">
				<output> 0.6683228015899658 </output>
			</split>
		</split>
	</tree>
	<tree id="31" weight="0.1">
		<split>
			<feature> 17 </feature>
			<threshold> 2.616713 </threshold>
			<split pos="left">
				<feature> 3 </feature>
				<threshold> 21.0 </threshold>
				<split pos="left">
					<output> -0.16221369802951813 </output>
				</split>
				<split pos="right">
					<feature> 2 </feature>
					<threshold> -0.18091547 </threshold>
					<split pos="left">
						<feature> 18 </feature>
						<threshold> -0.07562354 </threshold>
						<split pos="left">
							<feature> 6 </feature>
							<threshold> -1.4367796 </threshold>
							<split pos="left">
								<output> -0.11555575579404831 </output>
							</split>
							<split pos="right">
								<feature> 17 </feature>
								<threshold> -0.37372065 </threshold>
								<split pos="left">
									<feature> 18 </feature>
									<threshold> -0.2622013 </threshold>
									<split pos="left">
										<output> 0.08474603295326233 </output>
									</split>
									<split pos="right">
										<feature> 17 </feature>
										<threshold> -0.4387301 </threshold>
										<split pos="left">
											<output> 0.3349011242389679 </output>
										</split>
										<split pos="right">
											<output> 0.11393441259860992 </output>
										</split>
									</split>
								</split>
								<split pos="right">
									<feature> 18 </feature>
									<threshold> -0.2622013 </threshold>
									<split pos="left">
										<output> 0.6791358590126038 </output>
									</split>
									<split pos="right">
										<output> 0.15556208789348602 </output>
									</split>
								</split>
							</split>
						</split>
						<split pos="right">
							<output> 1.2176748514175415 </output>
						</split>
					</split>
					<split pos="right">
						<output> 0.3605822026729584 </output>
					</split>
				</split>
			</split>
			<split pos="right">
				<output> 0.6123232841491699 </output>
			</split>
		</split>
	</tree>
	<tree id="32" weight="0.1">
		<split>
			<feature> 17 </feature>
			<threshold> 2.5517037 </threshold>
			<split pos="left">
				<feature> 3 </feature>
				<threshold> 0.0 </threshold>
				<split pos="left">
					<output> -0.37067142128944397 </output>
				</split>
				<split pos="right">
					<feature> 1 </feature>
					<threshold> -0.35120326 </threshold>
					<split pos="left">
						<feature> 2 </feature>
						<threshold> -0.18091547 </threshold>
						<split pos="left">
							<feature> 9 </feature>
							<threshold> 0.2674483 </threshold>
							<split pos="left">
								<feature> 7 </feature>
								<threshold> -1.1420953 </threshold>
								<split pos="left">
									<output> 0.07907261699438095 </output>
								</split>
								<split pos="right">
									<feature> 7 </feature>
									<threshold> -1.1133829 </threshold>
									<split pos="left">
										<output> 0.6062760353088379 </output>
									</split>
									<split pos="right">
										<feature> 2 </feature>
										<threshold> -0.44003856 </threshold>
										<split pos="left">
											<output> 0.096443772315979 </output>
										</split>
										<split pos="right">
											<output> 0.17651498317718506 </output>
										</split>
									</split>
								</split>
							</split>
							<split pos="right">
								<feature> 8 </feature>
								<threshold> -0.38729542 </threshold>
								<split pos="left">
									<output> 0.002311453688889742 </output>
								</split>
								<split pos="right">
									<output> 0.11652399599552155 </output>
								</split>
							</split>
						</split>
						<split pos="right">
							<output> 0.38198789954185486 </output>
						</split>
					</split>
					<split pos="right">
						<output> -0.048980988562107086 </output>
					</split>
				</split>
			</split>
			<split pos="right">
				<output> 0.5415105223655701 </output>
			</split>
		</split>
	</tree>
	<tree id="33" weight="0.1">
		<split>
			<feature> 17 </feature>
			<threshold> 2.616713 </threshold>
			<split pos="left">
				<feature> 3 </feature>
				<threshold> 21.0 </threshold>
				<split pos="left">
					<output> -0.14948242902755737 </output>
				</split>
				<split pos="right">
					<feature> 2 </feature>
					<threshold> -0.18091547 </threshold>
					<split pos="left">
						<feature> 18 </feature>
						<threshold> -0.07562354 </threshold>
						<split pos="left">
							<feature> 18 </feature>
							<threshold> -0.16891243 </threshold>
							<split pos="left">
								<feature> 2 </feature>
								<threshold> -0.31047702 </threshold>
								<split pos="left">
									<feature> 3 </feature>
									<threshold> 93.0 </threshold>
									<split pos="left">
										<feature> 17 </feature>
										<threshold> -0.37372065 </threshold>
										<split pos="left">
											<feature> 18 </feature>
											<threshold> -0.2622013 </threshold>
											<split pos="left">
												<output> 0.06711119413375854 </output>
											</split>
											<split pos="right">
												<output> 0.12751075625419617 </output>
											</split>
										</split>
										<split pos="right">
											<output> 0.15308164060115814 </output>
										</split>
									</split>
									<split pos="right">
										<output> 0.01253628358244896 </output>
									</split>
								</split>
								<split pos="right">
									<output> 0.8760870099067688 </output>
								</split>
							</split>
							<split pos="right">
								<output> 0.030294833704829216 </output>
							</split>
						</split>
						<split pos="right">
							<output> 1.0887539386749268 </output>
						</split>
					</split>
					<split pos="right">
						<output> 0.2921196222305298 </output>
					</split>
				</split>
			</split>
			<split pos="right">
				<output> 0.4969356954097748 </output>
			</split>
		</split>
	</tree>
	<tree id="34" weight="0.1">
		<split>
			<feature> 1 </feature>
			<threshold> -0.35120326 </threshold>
			<split pos="left">
				<feature> 18 </feature>
				<threshold> 0.017665341 </threshold>
				<split pos="left">
					<feature> 18 </feature>
					<threshold> -0.07562354 </threshold>
					<split pos="left">
						<feature> 2 </feature>
						<threshold> -0.18091547 </threshold>
						<split pos="left">
							<feature> 14 </feature>
							<threshold> 1.540513 </threshold>
							<split pos="left">
								<feature> 14 </feature>
								<threshold> 1.4040571 </threshold>
								<split pos="left">
									<feature> 3 </feature>
									<threshold> 24.0 </threshold>
									<split pos="left">
										<output> 0.17576439678668976 </output>
									</split>
									<split pos="right">
										<feature> 14 </feature>
										<threshold> 1.2102953 </threshold>
										<split pos="left">
											<feature> 3 </feature>
											<threshold> 45.0 </threshold>
											<split pos="left">
												<output> 0.05913368985056877 </output>
											</split>
											<split pos="right">
												<output> 0.11310558766126633 </output>
											</split>
										</split>
										<split pos="right">
											<output> 0.22347234189510345 </output>
										</split>
									</split>
								</split>
								<split pos="right">
									<output> -0.10734245181083679 </output>
								</split>
							</split>
							<split pos="right">
								<output> 0.1783551722764969 </output>
							</split>
						</split>
						<split pos="right">
							<output> 0.3972456157207489 </output>
						</split>
					</split>
					<split pos="right">
						<output> -0.21989993751049042 </output>
					</split>
				</split>
				<split pos="right">
					<output> 0.42842549085617065 </output>
				</split>
			</split>
			<split pos="right">
				<output> -0.06934607774019241 </output>
			</split>
		</split>
	</tree>
	<tree id="35" weight="0.1">
		<split>
			<feature> 1 </feature>
			<threshold> -0.35120326 </threshold>
			<split pos="left">
				<feature> 18 </feature>
				<threshold> 0.017665341 </threshold>
				<split pos="left">
					<feature> 18 </feature>
					<threshold> -0.07562354 </threshold>
					<split pos="left">
						<feature> 2 </feature>
						<threshold> -0.18091547 </threshold>
						<split pos="left">
							<feature> 9 </feature>
							<threshold> 0.2674483 </threshold>
							<split pos="left">
								<feature> 9 </feature>
								<threshold> -1.7046484 </threshold>
								<split pos="left">
									<output> 0.06833666563034058 </output>
								</split>
								<split pos="right">
									<feature> 5 </feature>
									<threshold> -1.178832 </threshold>
									<split pos="left">
										<output> -0.0235156137496233 </output>
									</split>
									<split pos="right">
										<feature> 17 </feature>
										<threshold> -0.37372065 </threshold>
										<split pos="left">
											<output> 0.1119205579161644 </output>
										</split>
										<split pos="right">
											<output> 0.19071149826049805 </output>
										</split>
									</split>
								</split>
							</split>
							<split pos="right">
								<feature> 7 </feature>
								<threshold> -0.6040331 </threshold>
								<split pos="left">
									<output> -0.12298367917537689 </output>
								</split>
								<split pos="right">
									<output> 0.07223135232925415 </output>
								</split>
							</split>
						</split>
						<split pos="right">
							<output> 0.35753247141838074 </output>
						</split>
					</split>
					<split pos="right">
						<output> -0.19792047142982483 </output>
					</split>
				</split>
				<split pos="right">
					<output> 0.3855801820755005 </output>
				</split>
			</split>
			<split pos="right">
				<output> -0.06241156533360481 </output>
			</split>
		</split>
	</tree>
	<tree id="36" weight="0.1">
		<split>
			<feature> 17 </feature>
			<threshold> 3.0717785 </threshold>
			<split pos="left">
				<feature> 3 </feature>
				<threshold> 0.0 </threshold>
				<split pos="left">
					<output> -0.28004565834999084 </output>
				</split>
				<split pos="right">
					<feature> 1 </feature>
					<threshold> -0.35120326 </threshold>
					<split pos="left">
						<feature> 2 </feature>
						<threshold> -0.18091547 </threshold>
						<split pos="left">
							<feature> 3 </feature>
							<threshold> 93.0 </threshold>
							<split pos="left">
								<feature> 3 </feature>
								<threshold> 45.0 </threshold>
								<split pos="left">
									<feature> 3 </feature>
									<threshold> 39.0 </threshold>
									<split pos="left">
										<feature> 10 </feature>
										<threshold> 1.4218383 </threshold>
										<split pos="left">
											<feature> 8 </feature>
											<threshold> 0.39183754 </threshold>
											<split pos="left">
												<output> 0.0409444160759449 </output>
											</split>
											<split pos="right">
												<output> 0.11364518851041794 </output>
											</split>
										</split>
										<split pos="right">
											<output> 0.18573619425296783 </output>
										</split>
									</split>
									<split pos="right">
										<output> -0.04279646649956703 </output>
									</split>
								</split>
								<split pos="right">
									<output> 0.11621850728988647 </output>
								</split>
							</split>
							<split pos="right">
								<output> -0.0010601130779832602 </output>
							</split>
						</split>
						<split pos="right">
							<output> 0.2582972049713135 </output>
						</split>
					</split>
					<split pos="right">
						<output> -0.04814507067203522 </output>
					</split>
				</split>
			</split>
			<split pos="right">
				<output> 0.4429669678211212 </output>
			</split>
		</split>
	</tree>
	<tree id="37" weight="0.1">
		<split>
			<feature> 17 </feature>
			<threshold> 3.0717785 </threshold>
			<split pos="left">
				<feature> 3 </feature>
				<threshold> 21.0 </threshold>
				<split pos="left">
					<output> -0.11714067310094833 </output>
				</split>
				<split pos="right">
					<feature> 1 </feature>
					<threshold> -0.35120326 </threshold>
					<split pos="left">
						<feature> 2 </feature>
						<threshold> -0.18091547 </threshold>
						<split pos="left">
							<feature> 18 </feature>
							<threshold> -0.07562354 </threshold>
							<split pos="left">
								<feature> 9 </feature>
								<threshold> 0.2674483 </threshold>
								<split pos="left">
									<feature> 13 </feature>
									<threshold> 1.6475658 </threshold>
									<split pos="left">
										<feature> 2 </feature>
										<threshold> -0.44003856 </threshold>
										<split pos="left">
											<output> 0.03758866712450981 </output>
										</split>
										<split pos="right">
											<output> 0.09505586326122284 </output>
										</split>
									</split>
									<split pos="right">
										<output> 0.17319904267787933 </output>
									</split>
								</split>
								<split pos="right">
									<feature> 6 </feature>
									<threshold> -0.5521857 </threshold>
									<split pos="left">
										<output> 0.27933451533317566 </output>
									</split>
									<split pos="right">
										<output> 0.03644942492246628 </output>
									</split>
								</split>
							</split>
							<split pos="right">
								<output> 0.8381080627441406 </output>
							</split>
						</split>
						<split pos="right">
							<output> 0.283795028924942 </output>
						</split>
					</split>
					<split pos="right">
						<output> -0.030287185683846474 </output>
					</split>
				</split>
			</split>
			<split pos="right">
				<output> 0.39867451786994934 </output>
			</split>
		</split>
	</tree>
	<tree id="38" weight="0.1">
		<split>
			<feature> 17 </feature>
			<threshold> 3.526844 </threshold>
			<split pos="left">
				<feature> 3 </feature>
				<threshold> 0.0 </threshold>
				<split pos="left">
					<output> -0.24029962718486786 </output>
				</split>
				<split pos="right">
					<feature> 1 </feature>
					<threshold> -0.35120326 </threshold>
					<split pos="left">
						<feature> 2 </feature>
						<threshold> -0.18091547 </threshold>
						<split pos="left">
							<feature> 3 </feature>
							<threshold> 24.0 </threshold>
							<split pos="left">
								<output> 0.149374321103096 </output>
							</split>
							<split pos="right">
								<feature> 3 </feature>
								<threshold> 45.0 </threshold>
								<split pos="left">
									<feature> 3 </feature>
									<threshold> 39.0 </threshold>
									<split pos="left">
										<output> 0.05653000995516777 </output>
									</split>
									<split pos="right">
										<output> -0.04602504149079323 </output>
									</split>
								</split>
								<split pos="right">
									<feature> 2 </feature>
									<threshold> -0.31047702 </threshold>
									<split pos="left">
										<feature> 3 </feature>
										<threshold> 60.0 </threshold>
										<split pos="left">
											<output> 0.1291729062795639 </output>
										</split>
										<split pos="right">
											<output> 0.031079331412911415 </output>
										</split>
									</split>
									<split pos="right">
										<output> 0.7260660529136658 </output>
									</split>
								</split>
							</split>
						</split>
						<split pos="right">
							<output> 0.21157659590244293 </output>
						</split>
					</split>
					<split pos="right">
						<output> -0.04085167869925499 </output>
					</split>
				</split>
			</split>
			<split pos="right">
				<output> 0.4230528771877289 </output>
			</split>
		</split>
	</tree>
	<tree id="39" weight="0.1">
		<split>
			<feature> 3 </feature>
			<threshold> 21.0 </threshold>
			<split pos="left">
				<output> -0.1012977659702301 </output>
			</split>
			<split pos="right">
				<feature> 18 </feature>
				<threshold> 4.3089542 </threshold>
				<split pos="left">
					<feature> 1 </feature>
					<threshold> -0.35120326 </threshold>
					<split pos="left">
						<feature> 2 </feature>
						<threshold> -0.18091547 </threshold>
						<split pos="left">
							<feature> 3 </feature>
							<threshold> 93.0 </threshold>
							<split pos="left">
								<feature> 3 </feature>
								<threshold> 45.0 </threshold>
								<split pos="left">
									<feature> 3 </feature>
									<threshold> 39.0 </threshold>
									<split pos="left">
										<feature> 9 </feature>
										<threshold> 0.2674483 </threshold>
										<split pos="left">
											<output> 0.07985486090183258 </output>
										</split>
										<split pos="right">
											<output> 0.020633772015571594 </output>
										</split>
									</split>
									<split pos="right">
										<output> -0.041423339396715164 </output>
									</split>
								</split>
								<split pos="right">
									<feature> 2 </feature>
									<threshold> -0.31047702 </threshold>
									<split pos="left">
										<output> 0.07102309912443161 </output>
									</split>
									<split pos="right">
										<output> 0.6659631729125977 </output>
									</split>
								</split>
							</split>
							<split pos="right">
								<output> -0.013882766477763653 </output>
							</split>
						</split>
						<split pos="right">
							<output> 0.23909986019134521 </output>
						</split>
					</split>
					<split pos="right">
						<output> -0.02679629810154438 </output>
					</split>
				</split>
				<split pos="right">
					<output> 0.4812334179878235 </output>
				</split>
			</split>
		</split>
	</tree>
	<tree id="40" weight="0.1">
		<split>
			<feature> 2 </feature>
			<threshold> 3.770711 </threshold>
			<split pos="left">
				<feature> 3 </feature>
				<threshold> 21.0 </threshold>
				<split pos="left">
					<output> -0.09467875212430954 </output>
				</split>
				<split pos="right">
					<feature> 2 </feature>
					<threshold> 0.013426863 </threshold>
					<split pos="left">
						<feature> 2 </feature>
						<threshold> -0.18091547 </threshold>
						<split pos="left">
							<feature> 1 </feature>
							<threshold> -0.35120326 </threshold>
							<split pos="left">
								<feature> 13 </feature>
								<threshold> -0.97230875 </threshold>
								<split pos="left">
									<output> 0.016766246408224106 </output>
								</split>
								<split pos="right">
									<feature> 17 </feature>
									<threshold> -0.37372065 </threshold>
									<split pos="left">
										<feature> 8 </feature>
										<threshold> 0.21736753 </threshold>
										<split pos="left">
											<feature> 3 </feature>
											<threshold> 63.0 </threshold>
											<split pos="left">
												<output> 0.041225582361221313 </output>
											</split>
											<split pos="right">
												<output> -0.04727104306221008 </output>
											</split>
										</split>
										<split pos="right">
											<output> 0.07443459331989288 </output>
										</split>
									</split>
									<split pos="right">
										<output> 0.09430554509162903 </output>
									</split>
								</split>
							</split>
							<split pos="right">
								<output> 0.13131336867809296 </output>
							</split>
						</split>
						<split pos="right">
							<output> 1.0586379766464233 </output>
						</split>
					</split>
					<split pos="right">
						<output> -0.012267887592315674 </output>
					</split>
				</split>
			</split>
			<split pos="right">
				<output> 0.38149866461753845 </output>
			</split>
		</split>
	</tree>
	<tree id="41" weight="0.1">
		<split>
			<feature> 1 </feature>
			<threshold> -0.35120326 </threshold>
			<split pos="left">
				<feature> 18 </feature>
				<threshold> 0.017665341 </threshold>
				<split pos="left">
					<feature> 18 </feature>
					<threshold> -0.07562354 </threshold>
					<split pos="left">
						<feature> 2 </feature>
						<threshold> -0.18091547 </threshold>
						<split pos="left">
							<feature> 3 </feature>
							<threshold> 21.0 </threshold>
							<split pos="left">
								<output> 0.21483397483825684 </output>
							</split>
							<split pos="right">
								<feature> 18 </feature>
								<threshold> -0.16891243 </threshold>
								<split pos="left">
									<feature> 2 </feature>
									<threshold> -0.31047702 </threshold>
									<split pos="left">
										<feature> 3 </feature>
										<threshold> 93.0 </threshold>
										<split pos="left">
											<feature> 15 </feature>
											<threshold> -1.8157663 </threshold>
											<split pos="left">
												<output> -0.16127091646194458 </output>
											</split>
											<split pos="right">
												<output> 0.04664470627903938 </output>
											</split>
										</split>
										<split pos="right">
											<output> -0.03838954120874405 </output>
										</split>
									</split>
									<split pos="right">
										<output> 0.6491953134536743 </output>
									</split>
								</split>
								<split pos="right">
									<output> -0.005678107030689716 </output>
								</split>
							</split>
						</split>
						<split pos="right">
							<output> 0.204240083694458 </output>
						</split>
					</split>
					<split pos="right">
						<output> -0.14943760633468628 </output>
					</split>
				</split>
				<split pos="right">
					<output> 0.22692903876304626 </output>
				</split>
			</split>
			<split pos="right">
				<output> -0.05750950053334236 </output>
			</split>
		</split>
	</tree>
	<tree id="42" weight="0.1">
		<split>
			<feature> 1 </feature>
			<threshold> -0.35120326 </threshold>
			<split pos="left">
				<feature> 18 </feature>
				<threshold> 0.017665341 </threshold>
				<split pos="left">
					<feature> 18 </feature>
					<threshold> -0.07562354 </threshold>
					<split pos="left">
						<feature> 2 </feature>
						<threshold> -0.18091547 </threshold>
						<split pos="left">
							<feature> 3 </feature>
							<threshold> 21.0 </threshold>
							<split pos="left">
								<output> 0.19335004687309265 </output>
							</split>
							<split pos="right">
								<feature> 10 </feature>
								<threshold> 0.7681188 </threshold>
								<split pos="left">
									<feature> 8 </feature>
									<threshold> 0.8289304 </threshold>
									<split pos="left">
										<feature> 9 </feature>
										<threshold> 0.44205603 </threshold>
										<split pos="left">
											<feature> 15 </feature>
											<threshold> -1.2283928 </threshold>
											<split pos="left">
												<output> -0.12534883618354797 </output>
											</split>
											<split pos="right">
												<output> 0.002086013089865446 </output>
											</split>
										</split>
										<split pos="right">
											<output> 0.058082785457372665 </output>
										</split>
									</split>
									<split pos="right">
										<output> 0.06764933466911316 </output>
									</split>
								</split>
								<split pos="right">
									<output> 0.07357944548130035 </output>
								</split>
							</split>
						</split>
						<split pos="right">
							<output> 0.18381503224372864 </output>
						</split>
					</split>
					<split pos="right">
						<output> -0.13448843359947205 </output>
					</split>
				</split>
				<split pos="right">
					<output> 0.20423731207847595 </output>
				</split>
			</split>
			<split pos="right">
				<output> -0.05175856873393059 </output>
			</split>
		</split>
	</tree>
	<tree id="43" weight="0.1">
		<split>
			<feature> 18 </feature>
			<threshold> 4.3089542 </threshold>
			<split pos="left">
				<feature> 2 </feature>
				<threshold> 0.013426863 </threshold>
				<split pos="left">
					<feature> 18 </feature>
					<threshold> 0.017665341 </threshold>
					<split pos="left">
						<feature> 18 </feature>
						<threshold> -0.07562354 </threshold>
						<split pos="left">
							<feature> 2 </feature>
							<threshold> -0.18091547 </threshold>
							<split pos="left">
								<feature> 1 </feature>
								<threshold> -0.35120326 </threshold>
								<split pos="left">
									<feature> 3 </feature>
									<threshold> 21.0 </threshold>
									<split pos="left">
										<output> 0.1740294247865677 </output>
									</split>
									<split pos="right">
										<feature> 14 </feature>
										<threshold> 1.6181011 </threshold>
										<split pos="left">
											<feature> 13 </feature>
											<threshold> 1.3951032 </threshold>
											<split pos="left">
												<output> 0.03758838400244713 </output>
											</split>
											<split pos="right">
												<output> -0.04582260176539421 </output>
											</split>
										</split>
										<split pos="right">
											<output> 0.1048637330532074 </output>
										</split>
									</split>
								</split>
								<split pos="right">
									<output> 0.1296718567609787 </output>
								</split>
							</split>
							<split pos="right">
								<output> 0.8941797018051147 </output>
							</split>
						</split>
						<split pos="right">
							<output> -0.21742144227027893 </output>
						</split>
					</split>
					<split pos="right">
						<output> 1.0665314197540283 </output>
					</split>
				</split>
				<split pos="right">
					<output> -0.03483835980296135 </output>
				</split>
			</split>
			<split pos="right">
				<output> 0.3716444671154022 </output>
			</split>
		</split>
	</tree>
	<tree id="44" weight="0.1">
		<split>
			<feature> 1 </feature>
			<threshold> -0.35120326 </threshold>
			<split pos="left">
				<feature> 18 </feature>
				<threshold> 0.017665341 </threshold>
				<split pos="left">
					<feature> 18 </feature>
					<threshold> -0.07562354 </threshold>
					<split pos="left">
						<feature> 2 </feature>
						<threshold> -0.18091547 </threshold>
						<split pos="left">
							<feature> 3 </feature>
							<threshold> 24.0 </threshold>
							<split pos="left">
								<output> 0.1057799682021141 </output>
							</split>
							<split pos="right">
								<feature> 3 </feature>
								<threshold> 45.0 </threshold>
								<split pos="left">
									<feature> 3 </feature>
									<threshold> 39.0 </threshold>
									<split pos="left">
										<output> 0.02694316767156124 </output>
									</split>
									<split pos="right">
										<output> -0.05435073748230934 </output>
									</split>
								</split>
								<split pos="right">
									<feature> 2 </feature>
									<threshold> -0.31047702 </threshold>
									<split pos="left">
										<feature> 3 </feature>
										<threshold> 60.0 </threshold>
										<split pos="left">
											<output> 0.0933450311422348 </output>
										</split>
										<split pos="right">
											<output> 0.008903199806809425 </output>
										</split>
									</split>
									<split pos="right">
										<output> 0.5159308314323425 </output>
									</split>
								</split>
							</split>
						</split>
						<split pos="right">
							<output> 0.15072524547576904 </output>
						</split>
					</split>
					<split pos="right">
						<output> -0.10013210773468018 </output>
					</split>
				</split>
				<split pos="right">
					<output> 0.17896287143230438 </output>
				</split>
			</split>
			<split pos="right">
				<output> -0.05680382251739502 </output>
			</split>
		</split>
	</tree>
	<tree id="45" weight="0.1">
		<split>
			<feature> 1 </feature>
			<threshold> -0.35120326 </threshold>
			<split pos="left">
				<feature> 2 </feature>
				<threshold> 3.2524652 </threshold>
				<split pos="left">
					<feature> 8 </feature>
					<threshold> -1.9412407 </threshold>
					<split pos="left">
						<output> -0.37744227051734924 </output>
					</split>
					<split pos="right">
						<feature> 2 </feature>
						<threshold> -0.24569625 </threshold>
						<split pos="left">
							<feature> 3 </feature>
							<threshold> 93.0 </threshold>
							<split pos="left">
								<feature> 17 </feature>
								<threshold> -0.4387301 </threshold>
								<split pos="left">
									<output> 0.006571949925273657 </output>
								</split>
								<split pos="right">
									<feature> 18 </feature>
									<threshold> -0.3554902 </threshold>
									<split pos="left">
										<output> 1.6741739511489868 </output>
									</split>
									<split pos="right">
										<feature> 3 </feature>
										<threshold> 63.0 </threshold>
										<split pos="left">
											<feature> 17 </feature>
											<threshold> -0.3087112 </threshold>
											<split pos="left">
												<output> 0.03673594817519188 </output>
											</split>
											<split pos="right">
												<output> -0.10543016344308853 </output>
											</split>
										</split>
										<split pos="right">
											<output> 0.13259685039520264 </output>
										</split>
									</split>
								</split>
							</split>
							<split pos="right">
								<output> -0.03714553266763687 </output>
							</split>
						</split>
						<split pos="right">
							<output> 0.09364256262779236 </output>
						</split>
					</split>
				</split>
				<split pos="right">
					<output> 0.2977958917617798 </output>
				</split>
			</split>
			<split pos="right">
				<output> -0.05112270265817642 </output>
			</split>
		</split>
	</tree>
	<tree id="46" weight="0.1">
		<split>
			<feature> 2 </feature>
			<threshold> 0.013426863 </threshold>
			<split pos="left">
				<feature> 18 </feature>
				<threshold> 0.017665341 </threshold>
				<split pos="left">
					<feature> 18 </feature>
					<threshold> -0.07562354 </threshold>
					<split pos="left">
						<feature> 2 </feature>
						<threshold> -0.18091547 </threshold>
						<split pos="left">
							<feature> 1 </feature>
							<threshold> -0.35120326 </threshold>
							<split pos="left">
								<feature> 18 </feature>
								<threshold> -0.16891243 </threshold>
								<split pos="left">
									<feature> 2 </feature>
									<threshold> -0.31047702 </threshold>
									<split pos="left">
										<feature> 14 </feature>
										<threshold> -1.0793719 </threshold>
										<split pos="left">
											<output> -0.01843276619911194 </output>
										</split>
										<split pos="right">
											<feature> 15 </feature>
											<threshold> -0.2636523 </threshold>
											<split pos="left">
												<output> 0.06942012906074524 </output>
											</split>
											<split pos="right">
												<output> 0.015406080521643162 </output>
											</split>
										</split>
									</split>
									<split pos="right">
										<output> 0.5370573997497559 </output>
									</split>
								</split>
								<split pos="right">
									<output> -0.01836821250617504 </output>
								</split>
							</split>
							<split pos="right">
								<output> 0.12749582529067993 </output>
							</split>
						</split>
						<split pos="right">
							<output> 0.784763753414154 </output>
						</split>
					</split>
					<split pos="right">
						<output> -0.19392065703868866 </output>
					</split>
				</split>
				<split pos="right">
					<output> 0.9393182396888733 </output>
				</split>
			</split>
			<split pos="right">
				<output> -0.030940880998969078 </output>
			</split>
		</split>
	</tree>
	<tree id="47" weight="0.1">
		<split>
			<feature> 1 </feature>
			<threshold> -0.35120326 </threshold>
			<split pos="left">
				<feature> 17 </feature>
				<threshold> 2.421685 </threshold>
				<split pos="left">
					<feature> 6 </feature>
					<threshold> 1.7848582 </threshold>
					<split pos="left">
						<feature> 5 </feature>
						<threshold> 1.8665214 </threshold>
						<split pos="left">
							<feature> 2 </feature>
							<threshold> -0.18091547 </threshold>
							<split pos="left">
								<feature> 3 </feature>
								<threshold> 21.0 </threshold>
								<split pos="left">
									<output> 0.13747933506965637 </output>
								</split>
								<split pos="right">
									<feature> 8 </feature>
									<threshold> 0.8289304 </threshold>
									<split pos="left">
										<feature> 8 </feature>
										<threshold> 0.7806922 </threshold>
										<split pos="left">
											<feature> 7 </feature>
											<threshold> -1.2173882 </threshold>
											<split pos="left">
												<output> -0.1169850155711174 </output>
											</split>
											<split pos="right">
												<output> 0.01726008951663971 </output>
											</split>
										</split>
										<split pos="right">
											<output> -0.1592225581407547 </output>
										</split>
									</split>
									<split pos="right">
										<output> 0.048047181218862534 </output>
									</split>
								</split>
							</split>
							<split pos="right">
								<output> 0.0711132287979126 </output>
							</split>
						</split>
						<split pos="right">
							<output> -0.2994294762611389 </output>
						</split>
					</split>
					<split pos="right">
						<output> 0.17133376002311707 </output>
					</split>
				</split>
				<split pos="right">
					<output> 0.21012888848781586 </output>
				</split>
			</split>
			<split pos="right">
				<output> -0.05539325624704361 </output>
			</split>
		</split>
	</tree>
	<tree id="48" weight="0.1">
		<split>
			<feature> 2 </feature>
			<threshold> 0.013426863 </threshold>
			<split pos="left">
				<feature> 18 </feature>
				<threshold> 0.017665341 </threshold>
				<split pos="left">
					<feature> 18 </feature>
					<threshold> -0.07562354 </threshold>
					<split pos="left">
						<feature> 2 </feature>
						<threshold> -0.18091547 </threshold>
						<split pos="left">
							<feature> 1 </feature>
							<threshold> -0.35120326 </threshold>
							<split pos="left">
								<feature> 14 </feature>
								<threshold> 1.540513 </threshold>
								<split pos="left">
									<feature> 14 </feature>
									<threshold> 1.4040571 </threshold>
									<split pos="left">
										<feature> 15 </feature>
										<threshold> -0.62410295 </threshold>
										<split pos="left">
											<output> 0.003817671211436391 </output>
										</split>
										<split pos="right">
											<feature> 15 </feature>
											<threshold> -0.5149222 </threshold>
											<split pos="left">
												<output> 0.2589203715324402 </output>
											</split>
											<split pos="right">
												<output> 0.02470206655561924 </output>
											</split>
										</split>
									</split>
									<split pos="right">
										<output> -0.1413945108652115 </output>
									</split>
								</split>
								<split pos="right">
									<output> 0.07834187895059586 </output>
								</split>
							</split>
							<split pos="right">
								<output> 0.12028627097606659 </output>
							</split>
						</split>
						<split pos="right">
							<output> 0.7004514336585999 </output>
						</split>
					</split>
					<split pos="right">
						<output> -0.18025724589824677 </output>
					</split>
				</split>
				<split pos="right">
					<output> 0.841084897518158 </output>
				</split>
			</split>
			<split pos="right">
				<output> -0.03584400936961174 </output>
			</split>
		</split>
	</tree>
	<tree id="49" weight="0.1">
		<split>
			<feature> 2 </feature>
			<threshold> 4.8072023 </threshold>
			<split pos="left">
				<feature> 2 </feature>
				<threshold> 0.013426863 </threshold>
				<split pos="left">
					<feature> 18 </feature>
					<threshold> 0.017665341 </threshold>
					<split pos="left">
						<feature> 18 </feature>
						<threshold> -0.07562354 </threshold>
						<split pos="left">
							<feature> 2 </feature>
							<threshold> -0.18091547 </threshold>
							<split pos="left">
								<feature> 1 </feature>
								<threshold> -0.35120326 </threshold>
								<split pos="left">
									<feature> 8 </feature>
									<threshold> -1.9412407 </threshold>
									<split pos="left">
										<output> 0.2747862935066223 </output>
									</split>
									<split pos="right">
										<feature> 3 </feature>
										<threshold> 24.0 </threshold>
										<split pos="left">
											<output> 0.07958410680294037 </output>
										</split>
										<split pos="right">
											<feature> 8 </feature>
											<threshold> 0.2553711 </threshold>
											<split pos="left">
												<output> 0.0018011584179475904 </output>
											</split>
											<split pos="right">
												<output> 0.033203642815351486 </output>
											</split>
										</split>
									</split>
								</split>
								<split pos="right">
									<output> 0.1082586944103241 </output>
								</split>
							</split>
							<split pos="right">
								<output> 0.6304075121879578 </output>
							</split>
						</split>
						<split pos="right">
							<output> -0.16222186386585236 </output>
						</split>
					</split>
					<split pos="right">
						<output> 0.756976306438446 </output>
					</split>
				</split>
				<split pos="right">
					<output> -0.04644174128770828 </output>
				</split>
			</split>
			<split pos="right">
				<output> 0.4110214412212372 </output>
			</split>
		</split>
	</tree>
	<tree id="50" weight="0.1">
		<split>
			<feature> 1 </feature>
			<threshold> -0.35120326 </threshold>
			<split pos="left">
				<feature> 18 </feature>
				<threshold> 0.017665341 </threshold>
				<split pos="left">
					<feature> 2 </feature>
					<threshold> 0.013426863 </threshold>
					<split pos="left">
						<feature> 2 </feature>
						<threshold> -0.18091547 </threshold>
						<split pos="left">
							<feature> 10 </feature>
							<threshold> 0.7681188 </threshold>
							<split pos="left">
								<feature> 6 </feature>
								<threshold> 0.74224204 </threshold>
								<split pos="left">
									<feature> 9 </feature>
									<threshold> 0.44205603 </threshold>
									<split pos="left">
										<feature> 6 </feature>
										<threshold> -0.5085651 </threshold>
										<split pos="left">
											<feature> 5 </feature>
											<threshold> -0.44598022 </threshold>
											<split pos="left">
												<output> 0.024765312671661377 </output>
											</split>
											<split pos="right">
												<output> 0.2669726312160492 </output>
											</split>
										</split>
										<split pos="right">
											<output> -0.05442499369382858 </output>
										</split>
									</split>
									<split pos="right">
										<output> 0.050268154591321945 </output>
									</split>
								</split>
								<split pos="right">
									<output> -0.269923597574234 </output>
								</split>
							</split>
							<split pos="right">
								<output> 0.048224736005067825 </output>
							</split>
						</split>
						<split pos="right">
							<output> 0.16971571743488312 </output>
						</split>
					</split>
					<split pos="right">
						<output> -0.03598247841000557 </output>
					</split>
				</split>
				<split pos="right">
					<output> 0.13559219241142273 </output>
				</split>
			</split>
			<split pos="right">
				<output> -0.06605232506990433 </output>
			</split>
		</split>
	</tree>
	<tree id="51" weight="0.1">
		<split>
			<feature> 1 </feature>
			<threshold> -0.35120326 </threshold>
			<split pos="left">
				<feature> 17 </feature>
				<threshold> 2.421685 </threshold>
				<split pos="left">
					<feature> 8 </feature>
					<threshold> -1.9412407 </threshold>
					<split pos="left">
						<output> -0.30537518858909607 </output>
					</split>
					<split pos="right">
						<feature> 11 </feature>
						<threshold> -0.5243191 </threshold>
						<split pos="left">
							<output> 0.0589926615357399 </output>
						</split>
						<split pos="right">
							<feature> 5 </feature>
							<threshold> 0.80748844 </threshold>
							<split pos="left">
								<feature> 2 </feature>
								<threshold> 0.013426863 </threshold>
								<split pos="left">
									<feature> 18 </feature>
									<threshold> 0.017665341 </threshold>
									<split pos="left">
										<feature> 2 </feature>
										<threshold> -0.18091547 </threshold>
										<split pos="left">
											<feature> 6 </feature>
											<threshold> 0.583824 </threshold>
											<split pos="left">
												<output> 0.012636533938348293 </output>
											</split>
											<split pos="right">
												<output> 0.47239959239959717 </output>
											</split>
										</split>
										<split pos="right">
											<output> 0.1363840252161026 </output>
										</split>
									</split>
									<split pos="right">
										<output> 0.7561495304107666 </output>
									</split>
								</split>
								<split pos="right">
									<output> -0.045668620616197586 </output>
								</split>
							</split>
							<split pos="right">
								<output> -0.0956590324640274 </output>
							</split>
						</split>
					</split>
				</split>
				<split pos="right">
					<output> 0.1796039640903473 </output>
				</split>
			</split>
			<split pos="right">
				<output> -0.05944754555821419 </output>
			</split>
		</split>
	</tree>
	<tree id="52" weight="0.1">
		<split>
			<feature> 8 </feature>
			<threshold> -1.9412407 </threshold>
			<split pos="left">
				<output> -0.39516016840934753 </output>
			</split>
			<split pos="right">
				<feature> 17 </feature>
				<threshold> 4.501986 </threshold>
				<split pos="left">
					<feature> 2 </feature>
					<threshold> 0.013426863 </threshold>
					<split pos="left">
						<feature> 18 </feature>
						<threshold> 0.017665341 </threshold>
						<split pos="left">
							<feature> 18 </feature>
							<threshold> -0.07562354 </threshold>
							<split pos="left">
								<feature> 2 </feature>
								<threshold> -0.18091547 </threshold>
								<split pos="left">
									<feature> 1 </feature>
									<threshold> -0.35120326 </threshold>
									<split pos="left">
										<feature> 17 </feature>
										<threshold> -0.4387301 </threshold>
										<split pos="left">
											<output> -0.010506520047783852 </output>
										</split>
										<split pos="right">
											<feature> 18 </feature>
											<threshold> -0.3554902 </threshold>
											<split pos="left">
												<output> 1.1505366563796997 </output>
											</split>
											<split pos="right">
												<output> 0.021447772160172462 </output>
											</split>
										</split>
									</split>
									<split pos="right">
										<output> 0.1070033609867096 </output>
									</split>
								</split>
								<split pos="right">
									<output> 0.5619115829467773 </output>
								</split>
							</split>
							<split pos="right">
								<output> -0.16715186834335327 </output>
							</split>
						</split>
